digraph Tree {
node [shape=box, style="rounded", color="black", fontname="helvetica"] ;
edge [fontname="helvetica"] ;
0 [label="V7 <= -14.0\ngini = 0.0\nsamples = 144008\nvalue = [227426, 419]"] ;
1 [label="V18 <= -4.6\ngini = 0.5\nsamples = 57\nvalue = [40, 51]"] ;
0 -> 1 [labeldistance=2.5, labelangle=45, headlabel="True"] ;
2 [label="V21 <= 1.8\ngini = 0.1\nsamples = 30\nvalue = [3, 48]"] ;
1 -> 2 ;
3 [label="gini = 0.0\nsamples = 19\nvalue = [0, 34]"] ;
2 -> 3 ;
4 [label="V28 <= 0.4\ngini = 0.3\nsamples = 11\nvalue = [3, 14]"] ;
2 -> 4 ;
5 [label="gini = 0.0\nsamples = 9\nvalue = [0, 14]"] ;
4 -> 5 ;
6 [label="gini = 0.0\nsamples = 2\nvalue = [3, 0]"] ;
4 -> 6 ;
7 [label="V22 <= -7.2\ngini = 0.1\nsamples = 27\nvalue = [37, 3]"] ;
1 -> 7 ;
8 [label="gini = 0.0\nsamples = 3\nvalue = [0, 3]"] ;
7 -> 8 ;
9 [label="gini = 0.0\nsamples = 24\nvalue = [37, 0]"] ;
7 -> 9 ;
10 [label="V10 <= -3.9\ngini = 0.0\nsamples = 143951\nvalue = [227386, 368]"] ;
0 -> 10 [labeldistance=2.5, labelangle=-45, headlabel="False"] ;
11 [label="V16 <= -0.2\ngini = 0.5\nsamples = 216\nvalue = [128, 212]"] ;
10 -> 11 ;
12 [label="V26 <= -0.2\ngini = 0.3\nsamples = 159\nvalue = [46, 209]"] ;
11 -> 12 ;
13 [label="V6 <= -2.4\ngini = 0.5\nsamples = 52\nvalue = [39, 43]"] ;
12 -> 13 ;
14 [label="V18 <= -2.6\ngini = 0.3\nsamples = 25\nvalue = [31, 8]"] ;
13 -> 14 ;
15 [label="V16 <= -10.5\ngini = 0.2\nsamples = 20\nvalue = [29, 3]"] ;
14 -> 15 ;
16 [label="gini = 0.0\nsamples = 2\nvalue = [0, 3]"] ;
15 -> 16 ;
17 [label="gini = 0.0\nsamples = 18\nvalue = [29, 0]"] ;
15 -> 17 ;
18 [label="V7 <= -1.5\ngini = 0.4\nsamples = 5\nvalue = [2, 5]"] ;
14 -> 18 ;
19 [label="gini = 0.0\nsamples = 3\nvalue = [0, 5]"] ;
18 -> 19 ;
20 [label="gini = 0.0\nsamples = 2\nvalue = [2, 0]"] ;
18 -> 20 ;
21 [label="V6 <= 2.4\ngini = 0.3\nsamples = 27\nvalue = [8, 35]"] ;
13 -> 21 ;
22 [label="V26 <= -0.7\ngini = 0.2\nsamples = 25\nvalue = [4, 35]"] ;
21 -> 22 ;
23 [label="V10 <= -4.7\ngini = 0.5\nsamples = 3\nvalue = [2, 2]"] ;
22 -> 23 ;
24 [label="gini = 0.0\nsamples = 2\nvalue = [0, 2]"] ;
23 -> 24 ;
25 [label="gini = 0.0\nsamples = 1\nvalue = [2, 0]"] ;
23 -> 25 ;
26 [label="V19 <= 2.5\ngini = 0.1\nsamples = 22\nvalue = [2, 33]"] ;
22 -> 26 ;
27 [label="gini = 0.0\nsamples = 19\nvalue = [0, 30]"] ;
26 -> 27 ;
28 [label="V6 <= -1.3\ngini = 0.5\nsamples = 3\nvalue = [2, 3]"] ;
26 -> 28 ;
29 [label="gini = 0.0\nsamples = 1\nvalue = [2, 0]"] ;
28 -> 29 ;
30 [label="gini = 0.0\nsamples = 2\nvalue = [0, 3]"] ;
28 -> 30 ;
31 [label="gini = 0.0\nsamples = 2\nvalue = [4, 0]"] ;
21 -> 31 ;
32 [label="V3 <= -3.7\ngini = 0.1\nsamples = 107\nvalue = [7, 166]"] ;
12 -> 32 ;
33 [label="gini = 0.0\nsamples = 97\nvalue = [0, 154]"] ;
32 -> 33 ;
34 [label="Time <= 91486.5\ngini = 0.5\nsamples = 10\nvalue = [7, 12]"] ;
32 -> 34 ;
35 [label="V23 <= 4.7\ngini = 0.2\nsamples = 8\nvalue = [2, 12]"] ;
34 -> 35 ;
36 [label="V6 <= -1.7\ngini = 0.1\nsamples = 7\nvalue = [1, 12]"] ;
35 -> 36 ;
37 [label="gini = 0.0\nsamples = 1\nvalue = [1, 0]"] ;
36 -> 37 ;
38 [label="gini = 0.0\nsamples = 6\nvalue = [0, 12]"] ;
36 -> 38 ;
39 [label="gini = 0.0\nsamples = 1\nvalue = [1, 0]"] ;
35 -> 39 ;
40 [label="gini = 0.0\nsamples = 2\nvalue = [5, 0]"] ;
34 -> 40 ;
41 [label="Amount <= 0.4\ngini = 0.1\nsamples = 57\nvalue = [82, 3]"] ;
11 -> 41 ;
42 [label="gini = 0.0\nsamples = 2\nvalue = [0, 3]"] ;
41 -> 42 ;
43 [label="gini = 0.0\nsamples = 55\nvalue = [82, 0]"] ;
41 -> 43 ;
44 [label="V9 <= -3.6\ngini = 0.0\nsamples = 143735\nvalue = [227258, 156]"] ;
10 -> 44 ;
45 [label="V19 <= 1.5\ngini = 0.3\nsamples = 9\nvalue = [17, 4]"] ;
44 -> 45 ;
46 [label="gini = 0.0\nsamples = 8\nvalue = [17, 0]"] ;
45 -> 46 ;
47 [label="gini = 0.0\nsamples = 1\nvalue = [0, 4]"] ;
45 -> 47 ;
48 [label="V19 <= -3.3\ngini = 0.0\nsamples = 143726\nvalue = [227241, 152]"] ;
44 -> 48 ;
49 [label="V3 <= -2.8\ngini = 0.1\nsamples = 63\nvalue = [96, 4]"] ;
48 -> 49 ;
50 [label="V13 <= -1.4\ngini = 0.5\nsamples = 5\nvalue = [6, 4]"] ;
49 -> 50 ;
51 [label="gini = 0.0\nsamples = 1\nvalue = [0, 4]"] ;
50 -> 51 ;
52 [label="gini = 0.0\nsamples = 4\nvalue = [6, 0]"] ;
50 -> 52 ;
53 [label="gini = 0.0\nsamples = 58\nvalue = [90, 0]"] ;
49 -> 53 ;
54 [label="V18 <= -3.9\ngini = 0.0\nsamples = 143663\nvalue = [227145, 148]"] ;
48 -> 54 ;
55 [label="V16 <= -1.2\ngini = 0.4\nsamples = 6\nvalue = [7, 3]"] ;
54 -> 55 ;
56 [label="gini = 0.0\nsamples = 2\nvalue = [0, 3]"] ;
55 -> 56 ;
57 [label="gini = 0.0\nsamples = 4\nvalue = [7, 0]"] ;
55 -> 57 ;
58 [label="V14 <= -4.4\ngini = 0.0\nsamples = 143657\nvalue = [227138, 145]"] ;
54 -> 58 ;
59 [label="V8 <= -0.2\ngini = 0.3\nsamples = 183\nvalue = [242, 69]"] ;
58 -> 59 ;
60 [label="V17 <= -3.1\ngini = 0.1\nsamples = 128\nvalue = [206, 17]"] ;
59 -> 60 ;
61 [label="V9 <= 2.9\ngini = 0.3\nsamples = 9\nvalue = [3, 11]"] ;
60 -> 61 ;
62 [label="gini = 0.0\nsamples = 6\nvalue = [0, 11]"] ;
61 -> 62 ;
63 [label="gini = 0.0\nsamples = 3\nvalue = [3, 0]"] ;
61 -> 63 ;
64 [label="V19 <= -2.6\ngini = 0.1\nsamples = 119\nvalue = [203, 6]"] ;
60 -> 64 ;
65 [label="V23 <= -0.3\ngini = 0.5\nsamples = 7\nvalue = [4, 4]"] ;
64 -> 65 ;
66 [label="V1 <= 0.1\ngini = 0.3\nsamples = 4\nvalue = [1, 4]"] ;
65 -> 66 ;
67 [label="gini = 0.0\nsamples = 1\nvalue = [1, 0]"] ;
66 -> 67 ;
68 [label="gini = 0.0\nsamples = 3\nvalue = [0, 4]"] ;
66 -> 68 ;
69 [label="gini = 0.0\nsamples = 3\nvalue = [3, 0]"] ;
65 -> 69 ;
70 [label="V9 <= -3.1\ngini = 0.0\nsamples = 112\nvalue = [199, 2]"] ;
64 -> 70 ;
71 [label="gini = 0.0\nsamples = 1\nvalue = [0, 1]"] ;
70 -> 71 ;
72 [label="V10 <= -2.3\ngini = 0.0\nsamples = 111\nvalue = [199, 1]"] ;
70 -> 72 ;
73 [label="V4 <= 3.0\ngini = 0.3\nsamples = 3\nvalue = [4, 1]"] ;
72 -> 73 ;
74 [label="gini = 0.0\nsamples = 1\nvalue = [0, 1]"] ;
73 -> 74 ;
75 [label="gini = 0.0\nsamples = 2\nvalue = [4, 0]"] ;
73 -> 75 ;
76 [label="gini = 0.0\nsamples = 108\nvalue = [195, 0]"] ;
72 -> 76 ;
77 [label="V18 <= 0.4\ngini = 0.5\nsamples = 55\nvalue = [36, 52]"] ;
59 -> 77 ;
78 [label="V6 <= -0.2\ngini = 0.0\nsamples = 29\nvalue = [1, 41]"] ;
77 -> 78 ;
79 [label="gini = 0.0\nsamples = 28\nvalue = [0, 41]"] ;
78 -> 79 ;
80 [label="gini = 0.0\nsamples = 1\nvalue = [1, 0]"] ;
78 -> 80 ;
81 [label="V13 <= -0.9\ngini = 0.4\nsamples = 26\nvalue = [35, 11]"] ;
77 -> 81 ;
82 [label="V7 <= 0.9\ngini = 0.4\nsamples = 6\nvalue = [2, 6]"] ;
81 -> 82 ;
83 [label="gini = 0.0\nsamples = 4\nvalue = [0, 6]"] ;
82 -> 83 ;
84 [label="gini = 0.0\nsamples = 2\nvalue = [2, 0]"] ;
82 -> 84 ;
85 [label="V18 <= 1.1\ngini = 0.2\nsamples = 20\nvalue = [33, 5]"] ;
81 -> 85 ;
86 [label="V27 <= 0.5\ngini = 0.5\nsamples = 5\nvalue = [8, 5]"] ;
85 -> 86 ;
87 [label="gini = 0.0\nsamples = 2\nvalue = [0, 5]"] ;
86 -> 87 ;
88 [label="gini = 0.0\nsamples = 3\nvalue = [8, 0]"] ;
86 -> 88 ;
89 [label="gini = 0.0\nsamples = 15\nvalue = [25, 0]"] ;
85 -> 89 ;
90 [label="V17 <= -3.5\ngini = 0.0\nsamples = 143474\nvalue = [226896, 76]"] ;
58 -> 90 ;
91 [label="V1 <= -4.7\ngini = 0.4\nsamples = 17\nvalue = [17, 8]"] ;
90 -> 91 ;
92 [label="gini = 0.0\nsamples = 2\nvalue = [0, 4]"] ;
91 -> 92 ;
93 [label="V11 <= 3.0\ngini = 0.3\nsamples = 15\nvalue = [17, 4]"] ;
91 -> 93 ;
94 [label="V9 <= -0.3\ngini = 0.2\nsamples = 13\nvalue = [17, 2]"] ;
93 -> 94 ;
95 [label="V11 <= 2.6\ngini = 0.1\nsamples = 12\nvalue = [17, 1]"] ;
94 -> 95 ;
96 [label="gini = 0.0\nsamples = 10\nvalue = [15, 0]"] ;
95 -> 96 ;
97 [label="V4 <= 3.5\ngini = 0.4\nsamples = 2\nvalue = [2, 1]"] ;
95 -> 97 ;
98 [label="gini = 0.0\nsamples = 1\nvalue = [0, 1]"] ;
97 -> 98 ;
99 [label="gini = 0.0\nsamples = 1\nvalue = [2, 0]"] ;
97 -> 99 ;
100 [label="gini = 0.0\nsamples = 1\nvalue = [0, 1]"] ;
94 -> 100 ;
101 [label="gini = 0.0\nsamples = 2\nvalue = [0, 2]"] ;
93 -> 101 ;
102 [label="V26 <= 2.7\ngini = 0.0\nsamples = 143457\nvalue = [226879, 68]"] ;
90 -> 102 ;
103 [label="V25 <= -3.5\ngini = 0.0\nsamples = 143435\nvalue = [226849, 66]"] ;
102 -> 103 ;
104 [label="V14 <= 2.6\ngini = 0.1\nsamples = 13\nvalue = [15, 1]"] ;
103 -> 104 ;
105 [label="gini = 0.0\nsamples = 12\nvalue = [15, 0]"] ;
104 -> 105 ;
106 [label="gini = 0.0\nsamples = 1\nvalue = [0, 1]"] ;
104 -> 106 ;
107 [label="V8 <= -15.4\ngini = 0.0\nsamples = 143422\nvalue = [226834, 65]"] ;
103 -> 107 ;
108 [label="V26 <= 1.1\ngini = 0.0\nsamples = 57\nvalue = [98, 2]"] ;
107 -> 108 ;
109 [label="gini = 0.0\nsamples = 56\nvalue = [98, 0]"] ;
108 -> 109 ;
110 [label="gini = 0.0\nsamples = 1\nvalue = [0, 2]"] ;
108 -> 110 ;
111 [label="V12 <= -0.2\ngini = 0.0\nsamples = 143365\nvalue = [226736, 63]"] ;
107 -> 111 ;
112 [label="V1 <= -1.7\ngini = 0.0\nsamples = 46016\nvalue = [72858, 48]"] ;
111 -> 112 ;
113 [label="V4 <= 0.5\ngini = 0.0\nsamples = 4144\nvalue = [6563, 21]"] ;
112 -> 113 ;
114 [label="V16 <= -1.7\ngini = 0.0\nsamples = 2763\nvalue = [4391, 2]"] ;
113 -> 114 ;
115 [label="V19 <= -1.5\ngini = 0.0\nsamples = 108\nvalue = [168, 2]"] ;
114 -> 115 ;
116 [label="V19 <= -1.6\ngini = 0.3\nsamples = 8\nvalue = [9, 2]"] ;
115 -> 116 ;
117 [label="gini = 0.0\nsamples = 7\nvalue = [9, 0]"] ;
116 -> 117 ;
118 [label="gini = 0.0\nsamples = 1\nvalue = [0, 2]"] ;
116 -> 118 ;
119 [label="gini = 0.0\nsamples = 100\nvalue = [159, 0]"] ;
115 -> 119 ;
120 [label="gini = 0.0\nsamples = 2655\nvalue = [4223, 0]"] ;
114 -> 120 ;
121 [label="Time <= 512.5\ngini = 0.0\nsamples = 1381\nvalue = [2172, 19]"] ;
113 -> 121 ;
122 [label="gini = 0.0\nsamples = 1\nvalue = [0, 2]"] ;
121 -> 122 ;
123 [label="V26 <= -0.9\ngini = 0.0\nsamples = 1380\nvalue = [2172, 17]"] ;
121 -> 123 ;
124 [label="V26 <= -0.9\ngini = 0.2\nsamples = 16\nvalue = [23, 3]"] ;
123 -> 124 ;
125 [label="gini = 0.0\nsamples = 15\nvalue = [23, 0]"] ;
124 -> 125 ;
126 [label="gini = 0.0\nsamples = 1\nvalue = [0, 3]"] ;
124 -> 126 ;
127 [label="V22 <= 1.8\ngini = 0.0\nsamples = 1364\nvalue = [2149, 14]"] ;
123 -> 127 ;
128 [label="V13 <= -1.5\ngini = 0.0\nsamples = 1344\nvalue = [2120, 9]"] ;
127 -> 128 ;
129 [label="Time <= 166008.0\ngini = 0.1\nsamples = 138\nvalue = [223, 7]"] ;
128 -> 129 ;
130 [label="V1 <= -5.8\ngini = 0.0\nsamples = 136\nvalue = [222, 4]"] ;
129 -> 130 ;
131 [label="V27 <= 0.9\ngini = 0.2\nsamples = 8\nvalue = [8, 1]"] ;
130 -> 131 ;
132 [label="gini = 0.0\nsamples = 7\nvalue = [8, 0]"] ;
131 -> 132 ;
133 [label="gini = 0.0\nsamples = 1\nvalue = [0, 1]"] ;
131 -> 133 ;
134 [label="V19 <= 1.4\ngini = 0.0\nsamples = 128\nvalue = [214, 3]"] ;
130 -> 134 ;
135 [label="V2 <= 1.5\ngini = 0.0\nsamples = 117\nvalue = [199, 1]"] ;
134 -> 135 ;
136 [label="gini = 0.0\nsamples = 91\nvalue = [154, 0]"] ;
135 -> 136 ;
137 [label="V4 <= 0.8\ngini = 0.0\nsamples = 26\nvalue = [45, 1]"] ;
135 -> 137 ;
138 [label="V3 <= -0.3\ngini = 0.2\nsamples = 6\nvalue = [6, 1]"] ;
137 -> 138 ;
139 [label="gini = 0.0\nsamples = 5\nvalue = [6, 0]"] ;
138 -> 139 ;
140 [label="gini = 0.0\nsamples = 1\nvalue = [0, 1]"] ;
138 -> 140 ;
141 [label="gini = 0.0\nsamples = 20\nvalue = [39, 0]"] ;
137 -> 141 ;
142 [label="V1 <= -2.7\ngini = 0.2\nsamples = 11\nvalue = [15, 2]"] ;
134 -> 142 ;
143 [label="V3 <= -0.0\ngini = 0.4\nsamples = 2\nvalue = [1, 2]"] ;
142 -> 143 ;
144 [label="gini = 0.0\nsamples = 1\nvalue = [1, 0]"] ;
143 -> 144 ;
145 [label="gini = 0.0\nsamples = 1\nvalue = [0, 2]"] ;
143 -> 145 ;
146 [label="gini = 0.0\nsamples = 9\nvalue = [14, 0]"] ;
142 -> 146 ;
147 [label="V13 <= -1.7\ngini = 0.4\nsamples = 2\nvalue = [1, 3]"] ;
129 -> 147 ;
148 [label="gini = 0.0\nsamples = 1\nvalue = [1, 0]"] ;
147 -> 148 ;
149 [label="gini = 0.0\nsamples = 1\nvalue = [0, 3]"] ;
147 -> 149 ;
150 [label="V8 <= -10.8\ngini = 0.0\nsamples = 1206\nvalue = [1897, 2]"] ;
128 -> 150 ;
151 [label="V8 <= -10.8\ngini = 0.3\nsamples = 4\nvalue = [4, 1]"] ;
150 -> 151 ;
152 [label="gini = 0.0\nsamples = 3\nvalue = [4, 0]"] ;
151 -> 152 ;
153 [label="gini = 0.0\nsamples = 1\nvalue = [0, 1]"] ;
151 -> 153 ;
154 [label="V8 <= -6.2\ngini = 0.0\nsamples = 1202\nvalue = [1893, 1]"] ;
150 -> 154 ;
155 [label="V10 <= -0.6\ngini = 0.1\nsamples = 17\nvalue = [27, 1]"] ;
154 -> 155 ;
156 [label="V16 <= 1.4\ngini = 0.5\nsamples = 2\nvalue = [1, 1]"] ;
155 -> 156 ;
157 [label="gini = 0.0\nsamples = 1\nvalue = [0, 1]"] ;
156 -> 157 ;
158 [label="gini = 0.0\nsamples = 1\nvalue = [1, 0]"] ;
156 -> 158 ;
159 [label="gini = 0.0\nsamples = 15\nvalue = [26, 0]"] ;
155 -> 159 ;
160 [label="gini = 0.0\nsamples = 1185\nvalue = [1866, 0]"] ;
154 -> 160 ;
161 [label="V23 <= 0.6\ngini = 0.3\nsamples = 20\nvalue = [29, 5]"] ;
127 -> 161 ;
162 [label="gini = 0.0\nsamples = 2\nvalue = [0, 5]"] ;
161 -> 162 ;
163 [label="gini = 0.0\nsamples = 18\nvalue = [29, 0]"] ;
161 -> 163 ;
164 [label="V19 <= -2.3\ngini = 0.0\nsamples = 41872\nvalue = [66295, 27]"] ;
112 -> 164 ;
165 [label="V22 <= 0.6\ngini = 0.0\nsamples = 182\nvalue = [282, 3]"] ;
164 -> 165 ;
166 [label="gini = 0.0\nsamples = 134\nvalue = [210, 0]"] ;
165 -> 166 ;
167 [label="V2 <= 1.0\ngini = 0.1\nsamples = 48\nvalue = [72, 3]"] ;
165 -> 167 ;
168 [label="gini = 0.0\nsamples = 38\nvalue = [62, 0]"] ;
167 -> 168 ;
169 [label="Amount <= 4.4\ngini = 0.4\nsamples = 10\nvalue = [10, 3]"] ;
167 -> 169 ;
170 [label="V22 <= 0.8\ngini = 0.4\nsamples = 3\nvalue = [1, 3]"] ;
169 -> 170 ;
171 [label="gini = 0.0\nsamples = 2\nvalue = [0, 3]"] ;
170 -> 171 ;
172 [label="gini = 0.0\nsamples = 1\nvalue = [1, 0]"] ;
170 -> 172 ;
173 [label="gini = 0.0\nsamples = 7\nvalue = [9, 0]"] ;
169 -> 173 ;
174 [label="V12 <= -3.8\ngini = 0.0\nsamples = 41690\nvalue = [66013, 24]"] ;
164 -> 174 ;
175 [label="Amount <= 3.3\ngini = 0.0\nsamples = 149\nvalue = [239, 2]"] ;
174 -> 175 ;
176 [label="V14 <= -0.8\ngini = 0.2\nsamples = 14\nvalue = [20, 2]"] ;
175 -> 176 ;
177 [label="V14 <= -1.0\ngini = 0.5\nsamples = 3\nvalue = [3, 2]"] ;
176 -> 177 ;
178 [label="gini = 0.0\nsamples = 2\nvalue = [3, 0]"] ;
177 -> 178 ;
179 [label="gini = 0.0\nsamples = 1\nvalue = [0, 2]"] ;
177 -> 179 ;
180 [label="gini = 0.0\nsamples = 11\nvalue = [17, 0]"] ;
176 -> 180 ;
181 [label="gini = 0.0\nsamples = 135\nvalue = [219, 0]"] ;
175 -> 181 ;
182 [label="V11 <= 0.6\ngini = 0.0\nsamples = 41541\nvalue = [65774, 22]"] ;
174 -> 182 ;
183 [label="V19 <= -0.2\ngini = 0.0\nsamples = 31738\nvalue = [50351, 5]"] ;
182 -> 183 ;
184 [label="V14 <= -1.4\ngini = 0.0\nsamples = 11820\nvalue = [18772, 5]"] ;
183 -> 184 ;
185 [label="V16 <= 0.3\ngini = 0.0\nsamples = 792\nvalue = [1238, 3]"] ;
184 -> 185 ;
186 [label="Amount <= 447.4\ngini = 0.0\nsamples = 204\nvalue = [314, 3]"] ;
185 -> 186 ;
187 [label="Time <= 46500.0\ngini = 0.0\nsamples = 202\nvalue = [313, 2]"] ;
186 -> 187 ;
188 [label="V18 <= 0.1\ngini = 0.1\nsamples = 16\nvalue = [24, 1]"] ;
187 -> 188 ;
189 [label="gini = 0.0\nsamples = 10\nvalue = [19, 0]"] ;
188 -> 189 ;
190 [label="V10 <= -0.8\ngini = 0.3\nsamples = 6\nvalue = [5, 1]"] ;
188 -> 190 ;
191 [label="gini = 0.0\nsamples = 1\nvalue = [0, 1]"] ;
190 -> 191 ;
192 [label="gini = 0.0\nsamples = 5\nvalue = [5, 0]"] ;
190 -> 192 ;
193 [label="V1 <= 2.1\ngini = 0.0\nsamples = 186\nvalue = [289, 1]"] ;
187 -> 193 ;
194 [label="gini = 0.0\nsamples = 184\nvalue = [288, 0]"] ;
193 -> 194 ;
195 [label="V20 <= -0.4\ngini = 0.5\nsamples = 2\nvalue = [1, 1]"] ;
193 -> 195 ;
196 [label="gini = 0.0\nsamples = 1\nvalue = [1, 0]"] ;
195 -> 196 ;
197 [label="gini = 0.0\nsamples = 1\nvalue = [0, 1]"] ;
195 -> 197 ;
198 [label="V28 <= -0.8\ngini = 0.5\nsamples = 2\nvalue = [1, 1]"] ;
186 -> 198 ;
199 [label="gini = 0.0\nsamples = 1\nvalue = [1, 0]"] ;
198 -> 199 ;
200 [label="gini = 0.0\nsamples = 1\nvalue = [0, 1]"] ;
198 -> 200 ;
201 [label="gini = 0.0\nsamples = 588\nvalue = [924, 0]"] ;
185 -> 201 ;
202 [label="V17 <= 1.7\ngini = 0.0\nsamples = 11028\nvalue = [17534, 2]"] ;
184 -> 202 ;
203 [label="V15 <= -1.9\ngini = 0.0\nsamples = 10960\nvalue = [17418, 1]"] ;
202 -> 203 ;
204 [label="V17 <= -0.8\ngini = 0.0\nsamples = 328\nvalue = [527, 1]"] ;
203 -> 204 ;
205 [label="V25 <= -0.7\ngini = 0.0\nsamples = 44\nvalue = [63, 1]"] ;
204 -> 205 ;
206 [label="V19 <= -1.5\ngini = 0.3\nsamples = 5\nvalue = [4, 1]"] ;
205 -> 206 ;
207 [label="gini = 0.0\nsamples = 4\nvalue = [4, 0]"] ;
206 -> 207 ;
208 [label="gini = 0.0\nsamples = 1\nvalue = [0, 1]"] ;
206 -> 208 ;
209 [label="gini = 0.0\nsamples = 39\nvalue = [59, 0]"] ;
205 -> 209 ;
210 [label="gini = 0.0\nsamples = 284\nvalue = [464, 0]"] ;
204 -> 210 ;
211 [label="gini = 0.0\nsamples = 10632\nvalue = [16891, 0]"] ;
203 -> 211 ;
212 [label="V22 <= -1.0\ngini = 0.0\nsamples = 68\nvalue = [116, 1]"] ;
202 -> 212 ;
213 [label="Time <= 53648.5\ngini = 0.2\nsamples = 4\nvalue = [6, 1]"] ;
212 -> 213 ;
214 [label="gini = 0.0\nsamples = 1\nvalue = [0, 1]"] ;
213 -> 214 ;
215 [label="gini = 0.0\nsamples = 3\nvalue = [6, 0]"] ;
213 -> 215 ;
216 [label="gini = 0.0\nsamples = 64\nvalue = [110, 0]"] ;
212 -> 216 ;
217 [label="gini = 0.0\nsamples = 19918\nvalue = [31579, 0]"] ;
183 -> 217 ;
218 [label="V16 <= 1.4\ngini = 0.0\nsamples = 9803\nvalue = [15423, 17]"] ;
182 -> 218 ;
219 [label="V11 <= 0.6\ngini = 0.0\nsamples = 8801\nvalue = [13890, 7]"] ;
218 -> 219 ;
220 [label="gini = 0.0\nsamples = 1\nvalue = [0, 1]"] ;
219 -> 220 ;
221 [label="V17 <= 1.3\ngini = 0.0\nsamples = 8800\nvalue = [13890, 6]"] ;
219 -> 221 ;
222 [label="gini = 0.0\nsamples = 7681\nvalue = [12156, 0]"] ;
221 -> 222 ;
223 [label="Amount <= 441.5\ngini = 0.0\nsamples = 1119\nvalue = [1734, 6]"] ;
221 -> 223 ;
224 [label="V3 <= 0.4\ngini = 0.0\nsamples = 1095\nvalue = [1697, 5]"] ;
223 -> 224 ;
225 [label="gini = 0.0\nsamples = 762\nvalue = [1182, 0]"] ;
224 -> 225 ;
226 [label="V11 <= 0.6\ngini = 0.0\nsamples = 333\nvalue = [515, 5]"] ;
224 -> 226 ;
227 [label="V10 <= -0.8\ngini = 0.2\nsamples = 16\nvalue = [28, 3]"] ;
226 -> 227 ;
228 [label="V16 <= -0.1\ngini = 0.5\nsamples = 3\nvalue = [3, 3]"] ;
227 -> 228 ;
229 [label="gini = 0.0\nsamples = 2\nvalue = [3, 0]"] ;
228 -> 229 ;
230 [label="gini = 0.0\nsamples = 1\nvalue = [0, 3]"] ;
228 -> 230 ;
231 [label="gini = 0.0\nsamples = 13\nvalue = [25, 0]"] ;
227 -> 231 ;
232 [label="V17 <= 2.3\ngini = 0.0\nsamples = 317\nvalue = [487, 2]"] ;
226 -> 232 ;
233 [label="gini = 0.0\nsamples = 301\nvalue = [464, 0]"] ;
232 -> 233 ;
234 [label="V4 <= 2.5\ngini = 0.1\nsamples = 16\nvalue = [23, 2]"] ;
232 -> 234 ;
235 [label="gini = 0.0\nsamples = 15\nvalue = [23, 0]"] ;
234 -> 235 ;
236 [label="gini = 0.0\nsamples = 1\nvalue = [0, 2]"] ;
234 -> 236 ;
237 [label="V4 <= 2.5\ngini = 0.1\nsamples = 24\nvalue = [37, 1]"] ;
223 -> 237 ;
238 [label="gini = 0.0\nsamples = 22\nvalue = [36, 0]"] ;
237 -> 238 ;
239 [label="V5 <= -0.6\ngini = 0.5\nsamples = 2\nvalue = [1, 1]"] ;
237 -> 239 ;
240 [label="gini = 0.0\nsamples = 1\nvalue = [1, 0]"] ;
239 -> 240 ;
241 [label="gini = 0.0\nsamples = 1\nvalue = [0, 1]"] ;
239 -> 241 ;
242 [label="V19 <= 1.2\ngini = 0.0\nsamples = 1002\nvalue = [1533, 10]"] ;
218 -> 242 ;
243 [label="V19 <= -0.9\ngini = 0.0\nsamples = 981\nvalue = [1497, 6]"] ;
242 -> 243 ;
244 [label="Amount <= 128.4\ngini = 0.1\nsamples = 83\nvalue = [134, 4]"] ;
243 -> 244 ;
245 [label="V6 <= -0.8\ngini = 0.0\nsamples = 68\nvalue = [110, 1]"] ;
244 -> 245 ;
246 [label="V9 <= -1.3\ngini = 0.2\nsamples = 8\nvalue = [9, 1]"] ;
245 -> 246 ;
247 [label="gini = 0.0\nsamples = 1\nvalue = [0, 1]"] ;
246 -> 247 ;
248 [label="gini = 0.0\nsamples = 7\nvalue = [9, 0]"] ;
246 -> 248 ;
249 [label="gini = 0.0\nsamples = 60\nvalue = [101, 0]"] ;
245 -> 249 ;
250 [label="V14 <= -0.9\ngini = 0.2\nsamples = 15\nvalue = [24, 3]"] ;
244 -> 250 ;
251 [label="Time <= 99139.5\ngini = 0.5\nsamples = 4\nvalue = [3, 3]"] ;
250 -> 251 ;
252 [label="gini = 0.0\nsamples = 1\nvalue = [0, 3]"] ;
251 -> 252 ;
253 [label="gini = 0.0\nsamples = 3\nvalue = [3, 0]"] ;
251 -> 253 ;
254 [label="gini = 0.0\nsamples = 11\nvalue = [21, 0]"] ;
250 -> 254 ;
255 [label="V23 <= 0.1\ngini = 0.0\nsamples = 898\nvalue = [1363, 2]"] ;
243 -> 255 ;
256 [label="gini = 0.0\nsamples = 771\nvalue = [1167, 0]"] ;
255 -> 256 ;
257 [label="V3 <= -1.2\ngini = 0.0\nsamples = 127\nvalue = [196, 2]"] ;
255 -> 257 ;
258 [label="V11 <= 1.3\ngini = 0.1\nsamples = 17\nvalue = [23, 2]"] ;
257 -> 258 ;
259 [label="gini = 0.0\nsamples = 14\nvalue = [21, 0]"] ;
258 -> 259 ;
260 [label="V1 <= 0.6\ngini = 0.5\nsamples = 3\nvalue = [2, 2]"] ;
258 -> 260 ;
261 [label="gini = 0.0\nsamples = 2\nvalue = [2, 0]"] ;
260 -> 261 ;
262 [label="gini = 0.0\nsamples = 1\nvalue = [0, 2]"] ;
260 -> 262 ;
263 [label="gini = 0.0\nsamples = 110\nvalue = [173, 0]"] ;
257 -> 263 ;
264 [label="V19 <= 1.2\ngini = 0.2\nsamples = 21\nvalue = [36, 4]"] ;
242 -> 264 ;
265 [label="gini = 0.0\nsamples = 1\nvalue = [0, 4]"] ;
264 -> 265 ;
266 [label="gini = 0.0\nsamples = 20\nvalue = [36, 0]"] ;
264 -> 266 ;
267 [label="V14 <= -1.8\ngini = 0.0\nsamples = 97349\nvalue = [153878, 15]"] ;
111 -> 267 ;
268 [label="V28 <= -0.0\ngini = 0.0\nsamples = 2002\nvalue = [3126, 10]"] ;
267 -> 268 ;
269 [label="gini = 0.0\nsamples = 825\nvalue = [1309, 0]"] ;
268 -> 269 ;
270 [label="Amount <= 184.6\ngini = 0.0\nsamples = 1177\nvalue = [1817, 10]"] ;
268 -> 270 ;
271 [label="V16 <= 1.9\ngini = 0.0\nsamples = 1073\nvalue = [1668, 3]"] ;
270 -> 271 ;
272 [label="V2 <= 0.2\ngini = 0.0\nsamples = 1044\nvalue = [1631, 2]"] ;
271 -> 272 ;
273 [label="V22 <= -0.3\ngini = 0.0\nsamples = 222\nvalue = [323, 2]"] ;
272 -> 273 ;
274 [label="V19 <= 0.5\ngini = 0.1\nsamples = 34\nvalue = [43, 2]"] ;
273 -> 274 ;
275 [label="gini = 0.0\nsamples = 32\nvalue = [42, 0]"] ;
274 -> 275 ;
276 [label="V18 <= 0.4\ngini = 0.4\nsamples = 2\nvalue = [1, 2]"] ;
274 -> 276 ;
277 [label="gini = 0.0\nsamples = 1\nvalue = [1, 0]"] ;
276 -> 277 ;
278 [label="gini = 0.0\nsamples = 1\nvalue = [0, 2]"] ;
276 -> 278 ;
279 [label="gini = 0.0\nsamples = 188\nvalue = [280, 0]"] ;
273 -> 279 ;
280 [label="gini = 0.0\nsamples = 822\nvalue = [1308, 0]"] ;
272 -> 280 ;
281 [label="Amount <= 4.6\ngini = 0.1\nsamples = 29\nvalue = [37, 1]"] ;
271 -> 281 ;
282 [label="V14 <= -2.7\ngini = 0.4\nsamples = 4\nvalue = [3, 1]"] ;
281 -> 282 ;
283 [label="gini = 0.0\nsamples = 1\nvalue = [0, 1]"] ;
282 -> 283 ;
284 [label="gini = 0.0\nsamples = 3\nvalue = [3, 0]"] ;
282 -> 284 ;
285 [label="gini = 0.0\nsamples = 25\nvalue = [34, 0]"] ;
281 -> 285 ;
286 [label="V11 <= 0.0\ngini = 0.1\nsamples = 104\nvalue = [149, 7]"] ;
270 -> 286 ;
287 [label="V12 <= 0.5\ngini = 0.3\nsamples = 25\nvalue = [32, 7]"] ;
286 -> 287 ;
288 [label="V17 <= 1.7\ngini = 0.1\nsamples = 20\nvalue = [29, 1]"] ;
287 -> 288 ;
289 [label="gini = 0.0\nsamples = 15\nvalue = [25, 0]"] ;
288 -> 289 ;
290 [label="V28 <= 0.1\ngini = 0.3\nsamples = 5\nvalue = [4, 1]"] ;
288 -> 290 ;
291 [label="gini = 0.0\nsamples = 1\nvalue = [0, 1]"] ;
290 -> 291 ;
292 [label="gini = 0.0\nsamples = 4\nvalue = [4, 0]"] ;
290 -> 292 ;
293 [label="V8 <= -0.2\ngini = 0.4\nsamples = 5\nvalue = [3, 6]"] ;
287 -> 293 ;
294 [label="V10 <= -1.4\ngini = 0.2\nsamples = 3\nvalue = [1, 6]"] ;
293 -> 294 ;
295 [label="gini = 0.0\nsamples = 2\nvalue = [0, 6]"] ;
294 -> 295 ;
296 [label="gini = 0.0\nsamples = 1\nvalue = [1, 0]"] ;
294 -> 296 ;
297 [label="gini = 0.0\nsamples = 2\nvalue = [2, 0]"] ;
293 -> 297 ;
298 [label="gini = 0.0\nsamples = 79\nvalue = [117, 0]"] ;
286 -> 298 ;
299 [label="V3 <= 2.0\ngini = 0.0\nsamples = 95347\nvalue = [150752, 5]"] ;
267 -> 299 ;
300 [label="V3 <= 0.6\ngini = 0.0\nsamples = 90673\nvalue = [143363, 2]"] ;
299 -> 300 ;
301 [label="gini = 0.0\nsamples = 62533\nvalue = [99027, 0]"] ;
300 -> 301 ;
302 [label="V24 <= -0.4\ngini = 0.0\nsamples = 28140\nvalue = [44336, 2]"] ;
300 -> 302 ;
303 [label="V24 <= -0.4\ngini = 0.0\nsamples = 4519\nvalue = [7119, 2]"] ;
302 -> 303 ;
304 [label="V23 <= -0.3\ngini = 0.0\nsamples = 4518\nvalue = [7119, 1]"] ;
303 -> 304 ;
305 [label="V3 <= 0.7\ngini = 0.0\nsamples = 898\nvalue = [1378, 1]"] ;
304 -> 305 ;
306 [label="V3 <= 0.7\ngini = 0.0\nsamples = 82\nvalue = [119, 1]"] ;
305 -> 306 ;
307 [label="gini = 0.0\nsamples = 81\nvalue = [119, 0]"] ;
306 -> 307 ;
308 [label="gini = 0.0\nsamples = 1\nvalue = [0, 1]"] ;
306 -> 308 ;
309 [label="gini = 0.0\nsamples = 816\nvalue = [1259, 0]"] ;
305 -> 309 ;
310 [label="gini = 0.0\nsamples = 3620\nvalue = [5741, 0]"] ;
304 -> 310 ;
311 [label="gini = 0.0\nsamples = 1\nvalue = [0, 1]"] ;
303 -> 311 ;
312 [label="gini = 0.0\nsamples = 23621\nvalue = [37217, 0]"] ;
302 -> 312 ;
313 [label="V26 <= -0.5\ngini = 0.0\nsamples = 4674\nvalue = [7389, 3]"] ;
299 -> 313 ;
314 [label="V1 <= -0.2\ngini = 0.0\nsamples = 574\nvalue = [909, 3]"] ;
313 -> 314 ;
315 [label="gini = 0.0\nsamples = 566\nvalue = [898, 0]"] ;
314 -> 315 ;
316 [label="V26 <= -0.6\ngini = 0.3\nsamples = 8\nvalue = [11, 3]"] ;
314 -> 316 ;
317 [label="gini = 0.0\nsamples = 7\nvalue = [11, 0]"] ;
316 -> 317 ;
318 [label="gini = 0.0\nsamples = 1\nvalue = [0, 3]"] ;
316 -> 318 ;
319 [label="gini = 0.0\nsamples = 4100\nvalue = [6480, 0]"] ;
313 -> 319 ;
320 [label="V5 <= 1.3\ngini = 0.1\nsamples = 22\nvalue = [30, 2]"] ;
102 -> 320 ;
321 [label="gini = 0.0\nsamples = 19\nvalue = [27, 0]"] ;
320 -> 321 ;
322 [label="V7 <= 0.2\ngini = 0.5\nsamples = 3\nvalue = [3, 2]"] ;
320 -> 322 ;
323 [label="gini = 0.0\nsamples = 1\nvalue = [0, 2]"] ;
322 -> 323 ;
324 [label="gini = 0.0\nsamples = 2\nvalue = [3, 0]"] ;
322 -> 324 ;
}